<?xml version="1.0"?>
<opencv_storage>
<stage8>
  <maxWeakCount>51</maxWeakCount>
  <stageThreshold>-4.7559326887130737e-01</stageThreshold>
  <weakClassifiers>
    <_>
      <internalNodes>
        0 -1 289930 5.9504283126443624e-04</internalNodes>
      <leafValues>
        4.8974224925041199e-01 -3.8798499852418900e-02</leafValues></_>
    <_>
      <internalNodes>
        0 -1 168065 -4.3434530496597290e-02</internalNodes>
      <leafValues>
        5.6487542390823364e-01 -9.0342931449413300e-02</leafValues></_>
    <_>
      <internalNodes>
        0 -1 364543 4.1719464934431016e-04</internalNodes>
      <leafValues>
        -2.0033071935176849e-01 3.1900078058242798e-01</leafValues></_>
    <_>
      <internalNodes>
        0 -1 313355 -3.0634510330855846e-03</internalNodes>
      <leafValues>
        3.2024088501930237e-01 -1.7821529507637024e-01</leafValues></_>
    <_>
      <internalNodes>
        0 -1 355629 -1.0718582198023796e-03</internalNodes>
      <leafValues>
        -4.6277955174446106e-01 1.1433329433202744e-01</leafValues></_>
    <_>
      <internalNodes>
        0 -1 261268 8.1849074922502041e-04</internalNodes>
      <leafValues>
        1.0334120690822601e-01 -5.6461679935455322e-01</leafValues></_>
    <_>
      <internalNodes>
        0 -1 267465 -1.7357908654958010e-03</internalNodes>
      <leafValues>
        3.4113022685050964e-01 -1.5098486840724945e-01</leafValues></_>
    <_>
      <internalNodes>
        0 -1 190727 -1.8244324019178748e-03</internalNodes>
      <leafValues>
        2.2608113288879395e-01 -2.2697049379348755e-01</leafValues></_>
    <_>
      <internalNodes>
        0 -1 242428 6.6347949905321002e-04</internalNodes>
      <leafValues>
        -1.6385684907436371e-01 3.1326705217361450e-01</leafValues></_>
    <_>
      <internalNodes>
        0 -1 235529 2.7895430685020983e-04</internalNodes>
      <leafValues>
        -2.0387428998947144e-01 2.2889345884323120e-01</leafValues></_>
    <_>
      <internalNodes>
        0 -1 159671 1.8715539481490850e-03</internalNodes>
      <leafValues>
        5.3709372878074646e-02 -8.3578383922576904e-01</leafValues></_>
    <_>
      <internalNodes>
        0 -1 393608 4.9416427500545979e-03</internalNodes>
      <leafValues>
        -1.2028519809246063e-01 4.3691509962081909e-01</leafValues></_>
    <_>
      <internalNodes>
        0 -1 307593 -2.8046797524439171e-05</internalNodes>
      <leafValues>
        -2.7531769871711731e-01 1.8405395746231079e-01</leafValues></_>
    <_>
      <internalNodes>
        0 -1 301338 -5.6496658362448215e-04</internalNodes>
      <leafValues>
        2.9705852270126343e-01 -1.9106575846672058e-01</leafValues></_>
    <_>
      <internalNodes>
        0 -1 235500 7.8060169471427798e-05</internalNodes>
      <leafValues>
        1.5657258033752441e-01 -3.2429540157318115e-01</leafValues></_>
    <_>
      <internalNodes>
        0 -1 199137 6.7376310471445322e-04</internalNodes>
      <leafValues>
        -2.2749318182468414e-01 2.1001815795898438e-01</leafValues></_>
    <_>
      <internalNodes>
        0 -1 215834 3.6992624518461525e-04</internalNodes>
      <leafValues>
        -1.9448563456535339e-01 2.8025883436203003e-01</leafValues></_>
    <_>
      <internalNodes>
        0 -1 293754 2.0897705107927322e-02</internalNodes>
      <leafValues>
        -9.4894163310527802e-02 4.9960419535636902e-01</leafValues></_>
    <_>
      <internalNodes>
        0 -1 351902 1.8328797072172165e-02</internalNodes>
      <leafValues>
        -8.4518991410732269e-02 5.5978369712829590e-01</leafValues></_>
    <_>
      <internalNodes>
        0 -1 374022 3.7061048205941916e-03</internalNodes>
      <leafValues>
        -2.2766062617301941e-01 2.4005204439163208e-01</leafValues></_>
    <_>
      <internalNodes>
        0 -1 269714 7.3132783174514771e-02</internalNodes>
      <leafValues>
        -6.6557332873344421e-02 7.8686559200286865e-01</leafValues></_>
    <_>
      <internalNodes>
        0 -1 160205 4.2697307071648538e-04</internalNodes>
      <leafValues>
        1.6590724885463715e-01 -3.1548094749450684e-01</leafValues></_>
    <_>
      <internalNodes>
        0 -1 392027 6.0585597530007362e-03</internalNodes>
      <leafValues>
        6.2182657420635223e-02 -8.1012630462646484e-01</leafValues></_>
    <_>
      <internalNodes>
        0 -1 306706 5.0623645074665546e-04</internalNodes>
      <leafValues>
        -1.7706561088562012e-01 2.3702831566333771e-01</leafValues></_>
    <_>
      <internalNodes>
        0 -1 382329 1.1735821608453989e-03</internalNodes>
      <leafValues>
        6.1572518199682236e-02 -7.9846847057342529e-01</leafValues></_>
    <_>
      <internalNodes>
        0 -1 258616 5.2270978689193726e-02</internalNodes>
      <leafValues>
        6.8024620413780212e-02 -5.3093117475509644e-01</leafValues></_>
    <_>
      <internalNodes>
        0 -1 324303 4.0027931332588196e-02</internalNodes>
      <leafValues>
        6.5659888088703156e-02 -6.8014401197433472e-01</leafValues></_>
    <_>
      <internalNodes>
        0 -1 338850 -2.1717395633459091e-02</internalNodes>
      <leafValues>
        3.1887206435203552e-01 -1.4199917018413544e-01</leafValues></_>
    <_>
      <internalNodes>
        0 -1 355608 -1.1168465716764331e-03</internalNodes>
      <leafValues>
        2.7515041828155518e-01 -1.9296383857727051e-01</leafValues></_>
    <_>
      <internalNodes>
        0 -1 310727 -1.9643653184175491e-02</internalNodes>
      <leafValues>
        7.1852773427963257e-01 -5.6571450084447861e-02</leafValues></_>
    <_>
      <internalNodes>
        0 -1 362922 1.8404897302389145e-02</internalNodes>
      <leafValues>
        -7.2107926011085510e-02 5.3692728281021118e-01</leafValues></_>
    <_>
      <internalNodes>
        0 -1 173211 -1.4889521989971399e-03</internalNodes>
      <leafValues>
        -4.2456120252609253e-01 1.0688736289739609e-01</leafValues></_>
    <_>
      <internalNodes>
        0 -1 355090 5.0005614757537842e-03</internalNodes>
      <leafValues>
        -1.4545184373855591e-01 3.0566641688346863e-01</leafValues></_>
    <_>
      <internalNodes>
        0 -1 366897 -1.0958082973957062e-02</internalNodes>
      <leafValues>
        2.6798576116561890e-01 -1.6793392598628998e-01</leafValues></_>
    <_>
      <internalNodes>
        0 -1 193285 -7.8741367906332016e-04</internalNodes>
      <leafValues>
        -3.7486448884010315e-01 1.2145211547613144e-01</leafValues></_>
    <_>
      <internalNodes>
        0 -1 358617 -5.6445947848260403e-05</internalNodes>
      <leafValues>
        1.9741810858249664e-01 -2.0564961433410645e-01</leafValues></_>
    <_>
      <internalNodes>
        0 -1 357977 5.9749156935140491e-04</internalNodes>
      <leafValues>
        -1.4971187710762024e-01 2.9341414570808411e-01</leafValues></_>
    <_>
      <internalNodes>
        0 -1 293234 -2.0982148125767708e-03</internalNodes>
      <leafValues>
        3.2993897795677185e-01 -1.3554897904396057e-01</leafValues></_>
    <_>
      <internalNodes>
        0 -1 280929 -9.3835336156189442e-04</internalNodes>
      <leafValues>
        -4.4009923934936523e-01 1.0729893296957016e-01</leafValues></_>
    <_>
      <internalNodes>
        0 -1 294713 1.3115168549120426e-03</internalNodes>
      <leafValues>
        8.4586001932621002e-02 -5.5024814605712891e-01</leafValues></_>
    <_>
      <internalNodes>
        0 -1 342198 -5.2293468266725540e-02</internalNodes>
      <leafValues>
        -7.3390722274780273e-01 4.9884989857673645e-02</leafValues></_>
    <_>
      <internalNodes>
        0 -1 172729 5.5615180172026157e-03</internalNodes>
      <leafValues>
        5.0416726619005203e-02 -7.1927845478057861e-01</leafValues></_>
    <_>
      <internalNodes>
        0 -1 355948 3.5036839544773102e-03</internalNodes>
      <leafValues>
        4.7324970364570618e-02 -7.7474695444107056e-01</leafValues></_>
    <_>
      <internalNodes>
        0 -1 175898 -1.0404244065284729e-01</internalNodes>
      <leafValues>
        6.5633362531661987e-01 -7.2414092719554901e-02</leafValues></_>
    <_>
      <internalNodes>
        0 -1 155880 7.8735062852501869e-03</internalNodes>
      <leafValues>
        -1.1835939437150955e-01 3.5075995326042175e-01</leafValues></_>
    <_>
      <internalNodes>
        0 -1 137707 -6.3868314027786255e-03</internalNodes>
      <leafValues>
        3.7564527988433838e-01 -1.4514480531215668e-01</leafValues></_>
    <_>
      <internalNodes>
        0 -1 296227 1.9841710105538368e-02</internalNodes>
      <leafValues>
        -1.0456359386444092e-01 4.2193683981895447e-01</leafValues></_>
    <_>
      <internalNodes>
        0 -1 91756 -7.8405342996120453e-02</internalNodes>
      <leafValues>
        -6.5086942911148071e-01 7.1784056723117828e-02</leafValues></_>
    <_>
      <internalNodes>
        0 -1 228266 4.5466446317732334e-04</internalNodes>
      <leafValues>
        1.1397583782672882e-01 -3.5794204473495483e-01</leafValues></_>
    <_>
      <internalNodes>
        0 -1 257893 3.6457993090152740e-02</internalNodes>
      <leafValues>
        1.4310000836849213e-01 -2.9313737154006958e-01</leafValues></_>
    <_>
      <internalNodes>
        0 -1 273488 -5.3248829208314419e-03</internalNodes>
      <leafValues>
        3.9898371696472168e-01 -1.0499576479196548e-01</leafValues></_></weakClassifiers></stage8>
</opencv_storage>
